{
  'layer_9': {}, 
  'layer_8': {}, 
  'layer_1': {}, 

  'layer_0': 
    {
      'param_1': 
      array
      (
        [ 0.17923311,  0.05871838,  0.1907406 ,  0.19834341,  0.02530327,
          0.05633537, -0.04818408,  0.11277899,  0.0634641 ,  0.0699791 ,
         -0.02025917, -0.03000536, -0.07599525,  0.29691233, -0.08652571,
          0.0748335 ,  0.03232577,  0.05280484,  0.10961324,  0.26495841,
          0.28841282,  0.18975154, -0.07595584,  0.05616976,  0.11327918,
          0.04492858,  0.10514613,  0.04921718,  0.13498398, -0.0562984 ,
          0.10873626,  0.10404418
        ]
      ), 
      'param_0': 
        array
        (
          [
            [
              [
                [ 0.68200834,  0.34729966,  0.29663121],
                [ 0.58891453, -0.28505288, -0.3562735 ],
                [ 0.58600082, -0.60253209, -0.8596044 ]
              ]
            ],
            
            [
              [
                [ 0.30278148,  0.37894867, -0.35433128],
                [ 0.43074068,  0.15938921,  0.41610867],
                [-0.13918974, -0.15607528,  0.6227991 ]
              ]
            ],

            [
              [
                [-0.36809554, -0.16522284, -0.21297057],
                [-0.45941671,  0.37266221,  0.0124749 ],
                [ 0.26785051,  0.55722139,  0.32008454]
              ]
            ],


            [[[ 0.43841062, -0.22586428, -0.22327203],
             [ 0.17417614,  0.42134705,  0.3184906 ],
             [-0.43581555, -0.33635529,  0.31057432]]],


             [[[-0.04820965, -0.25761064, -0.64369271],
             [ 0.56170318,  0.4528284 ,  0.15715565],
             [-0.45044469,  0.19545222,  0.19171233]]],

 
            [[[ 0.24640434,  0.49442115,  0.48134435],
             [-0.15545745,  0.39924824,  0.5104575 ],
             [-0.5322519 ,  0.39196269, -0.02926805]]],


            [[[-0.01638688, -0.38820132,  0.12987773],
             [ 0.04376294,  0.42943388,  0.34309549],
             [-0.0300726 ,  0.06869112,  0.33024611]]],


            [[[-0.42975398,  0.42545067, -0.24587551],
             [-0.43540165, -0.42398321, -0.04406932],
             [-0.48904118, -0.4168145 , -0.62996503]]],


            [[[-0.55098951, -0.38025014,  0.10539602],
             [-0.36316463, -0.04477071, -0.00773275],
             [ 0.17860562,  0.10597039,  0.58560726]]],


            [[[ 0.19999566, -0.14404205,  0.48308999],
             [-0.1172033 , -0.28365827,  0.39195655],
             [ 0.28531822, -0.50103656, -0.4280328 ]]],


            [[[-0.2011688 ,  0.42755511,  0.47037604],
             [ 0.27776344, -0.33185846, -0.05016586],
             [-0.16483157,  0.34447239,  0.47497927]]],


            [[[-0.63612926, -0.18675081,  0.20712519],
             [ 0.20748946,  0.20859231, -0.11150485],
             [ 0.32792095,  0.58057847,  0.07996194]]],


            [[[-0.23272701,  0.42835704,  0.57715448],
             [-0.154758  ,  0.44910955,  0.2494801 ],
             [ 0.37811477,  0.01655936,  0.16155209]]],

 
            [[[-0.53352905, -0.03559949, -0.2489772 ],
             [-0.51685619,  0.26254879,  0.18822233],
             [-0.29348171, -0.11646406,  0.65913631]]],


            [[[ 0.34820574, -0.06865329,  0.05067335],
             [-0.10719813,  0.41832052,  0.40467253],
             [ 0.16797759, -0.46623223,  0.03557735]]],


            [[[-0.63606637, -0.66656539,  0.06842706],
             [-0.17277371, -0.22021404, -0.57633197],
             [ 0.32548569,  0.58392049, -0.09074237]]],


            [[[ 0.32751675,  0.16373224,  0.83854846],
             [-0.2317552 , -0.3955249 ,  0.20889605],
             [-0.3871181 , -0.46377892,  0.08872732]]],


            [[[-0.56683961, -0.29557223,  0.09878901],
             [-0.0185723 , -0.1785732 ,  0.22879352],
             [-0.53790265, -0.18821914, -0.2461143 ]]],


            [[[-0.57621646, -0.44134406, -0.17926903],
             [-0.29748481,  0.08693846,  0.35613339],
             [-0.41938604,  0.21482768, -0.14246021]]],


            [[[-0.50489106,  0.47279453,  0.53422437],
             [-0.12963365,  0.34995573,  0.27630569],
             [-0.04131991, -0.26735343, -0.18327602]]],

 
            [[[ 0.10873036, -0.53758259,  0.20069853],
             [ 0.38440432,  0.08620732,  0.11827599],
             [ 0.38165565,  0.36634624, -0.2854295 ]]],


            [[[ 0.56268116,  0.41392201, -0.57790778],
             [-0.10536372,  0.25696264, -0.49377774],
             [-0.3176983 , -0.61153836, -0.31946364]]],


            [[[ 0.34275165,  0.33830254,  0.22990621],
             [ 0.46577513,  0.49537941, -0.04885018],
             [-0.00591686, -0.08474964,  0.01764668]]],


            [[[ 0.55087106,  0.41140585, -0.13077127],
             [-0.18360957,  0.3864039 , -0.42307505],
             [ 0.3501662 , -0.20097333, -0.304333  ]]],


            [[[-0.1467563 , -0.34560281,  0.34020268],
             [ 0.47454493,  0.35309751, -0.30014238],
             [ 0.2621797 ,  0.52022293, -0.4819291 ]]],


            [[[-0.27901572, -0.63983073, -0.43278419],
             [-0.12421282, -0.06164553,  0.33709595],
             [ 0.26395553,  0.60594365,  0.46185865]]],


            [[[ 0.3214165 , -0.20989004, -0.62849315],
             [ 0.06777501,  0.37960607, -0.27122933],
             [-0.37079556,  0.39610156,  0.30543097]]],


            [[[ 0.26007417,  0.41855682, -0.44953012],
             [-0.36956472, -0.23667775, -0.501779  ],
             [-0.48400641, -0.50615384, -0.42468427]]],


            [[[ 0.63661503, -0.19555964, -0.53614317],
             [ 0.37715953,  0.24636088, -0.55910852],
             [ 0.01562325, -0.25054054,  0.50232464]]],


            [[[-0.03987246,  0.03235232, -0.06593053],
             [ 0.50130472,  0.38903716, -0.08031439],
             [ 0.52023343, -0.14695898, -0.19680567]]],


            [[[-0.19785261, -0.54777388, -0.26044384],
             [-0.51401731, -0.21915901, -0.42291313],
             [ 0.20240419,  0.05661026, -0.14095468]]],


            [
             [
              [ 0.06435944, -0.20475636,  0.21409943],
              [ 0.25189814,  0.24474001,  0.05011609],
              [-0.58740144, -0.48440885, -0.66523965]
             ]
           ]
      ]
    )
  }, 

    'layer_3': {}, 

    'layer_2': 
    {
      'param_1': 
        array
        (
          [-0.06269539, -0.05615143, -0.01720114,  0.00729044, -0.07688701,
           -0.06852566,  0.0253871 , -0.07471139, -0.05063232,  0.00575222,
            0.03955702, -0.03661667, -0.00169862, -0.00129639, -0.01259572,
           -0.01858073, -0.00705961, -0.0264491 , -0.03662313,  0.00455714,
           -0.05444958, -0.06318223, -0.04816299,  0.01309708, -0.06175704,
            0.02366076,  0.03008582,  0.00204454, -0.01907058, -0.08788138,
           -0.0033207 , -0.00662598
           ]
        ), 

        'param_0': 
          array
          (
            [
              [
                [
                 [  1.63918235e-02,  -1.66795276e-01,  -2.79835562e-01],
                 [  7.36494072e-02,  -2.13239628e-01,  -1.31740314e-01],
                 [  4.39409862e-02,   2.33746671e-02,  -2.23172399e-01]],

                [[  1.87579050e-01,   1.47286966e-01,   2.05232208e-01],
                 [  2.45280005e-02,  -4.30605097e-02,   1.42697426e-01],
                 [  1.00855914e-01,  -9.69170388e-02,   1.91307928e-01]],

                [[ -2.01353392e-01,  -1.99034269e-01,  -1.57357724e-01],
                 [ -1.94805743e-01,  -9.07443031e-02,  -1.00566053e-01],
                 [ -3.16420505e-05,   1.14484047e-01,  -7.21035172e-02]],

                ..., 
                [[  3.30660820e-02,  -7.57482223e-02,   5.10912967e-02],
                 [ -1.11359132e-01,  -8.02932186e-02,   2.44244558e-02],
                 [  5.70262556e-02,  -1.55074961e-01,   1.08740577e-01]],

                [[ -1.48530859e-01,   9.75145337e-02,  -1.38278033e-01],
                 [ -3.73941348e-02,  -1.63533608e-01,  -4.06213916e-02],
                 [ -1.05324436e-01,  -1.58651396e-01,  -9.98655004e-02]],

                [[  5.85488091e-02,   3.18345768e-04,  -1.16360334e-01],
                 [ -1.54264280e-01,  -1.31788630e-01,  -1.53152981e-01],
                 [ -7.89191739e-02,  -1.63241826e-01,  -1.90070792e-01]]
                ],


       [[[ -2.53725435e-02,   2.27273183e-01,   1.00073401e-01],
         [  4.36783251e-02,   1.60285593e-01,  -1.42588847e-01],
         [  5.09520696e-02,  -7.88847419e-02,  -2.33151775e-01]],

        [[  1.09151749e-01,   1.98515101e-01,  -1.45326765e-01],
         [ -2.28061995e-02,   1.85785609e-01,  -1.41136935e-01],
         [ -1.51687113e-01,  -9.57272499e-02,   9.04439318e-03]],

        [[  7.06807713e-02,   7.00335735e-02,   1.88329950e-02],
         [  2.43471215e-02,  -3.17199261e-02,  -8.95583199e-02],
         [  1.00686005e-02,   7.76315575e-02,  -1.56492270e-01]],

        ..., 
        [[  4.59131980e-02,   2.62076095e-01,   3.18107074e-02],
         [  1.26174123e-01,  -1.61012382e-01,  -5.01559142e-04],
         [ -2.58188392e-01,  -2.93996483e-01,  -1.98198184e-01]],

        [[ -1.02492451e-01,  -6.85071677e-02,   6.05376968e-02],
         [ -1.45401869e-01,  -2.18133363e-01,   5.55385138e-02],
         [ -1.61179183e-01,  -9.81961116e-03,  -1.45450340e-01]],

        [[ -7.27644700e-02,  -9.25439139e-03,  -1.27925294e-01],
         [  6.65320644e-02,  -3.07388362e-02,   7.41323489e-02],
         [  1.45683975e-01,   1.13014036e-01,   2.47636363e-02]]],


       [[[ -8.30199612e-02,  -9.10759857e-02,  -5.36915238e-02],
         [  1.53525801e-02,  -2.17039462e-01,  -2.50955950e-01],
         [  3.29474152e-02,  -2.96410247e-01,  -3.15096547e-01]],

        [[  2.09468653e-01,   4.90615199e-02,  -1.09203850e-01],
         [  1.37924732e-01,   1.15078343e-01,  -1.20539757e-01],
         [ -3.80346104e-02,   5.93143626e-02,   1.13904484e-01]],

        [[  1.10062387e-01,  -1.48818830e-01,  -3.02497143e-02],
         [ -4.16583946e-02,   7.62372738e-02,  -7.80696396e-02],
         [ -5.97395693e-02,   8.54571138e-02,   2.46977363e-01]],

        ..., 
        [[  9.03969071e-02,   1.71979791e-01,  -2.12139353e-01],
         [  1.13845158e-01,   8.98188608e-02,  -1.41470157e-01],
         [  2.10935564e-02,   2.41483884e-02,   1.16491747e-01]],

        [[ -1.90311820e-01,   3.05672560e-02,   2.01167853e-02],
         [ -2.05653922e-01,   2.79216473e-02,  -6.19941214e-02],
         [  1.33873813e-02,  -3.86893099e-02,  -1.36094241e-01]],

        [[  6.64615759e-02,  -1.94902477e-01,  -3.39500231e-03],
         [ -8.56124256e-02,  -8.43281977e-02,  -6.63248058e-02],
         [ -7.34586893e-02,  -1.43209887e-03,  -2.69939173e-01]]],


       ..., 
       [[[  7.68458334e-02,  -1.72517605e-01,  -2.44630792e-01],
         [ -4.53498966e-02,  -3.52401808e-02,  -6.43183379e-02],
         [  9.81910129e-03,  -1.20979560e-01,   1.29799534e-01]],

        [[  1.53954871e-01,   1.86008805e-01,   1.59081501e-01],
         [  4.62272086e-02,   1.47560672e-01,   1.45862082e-01],
         [ -6.78477773e-02,  -8.36775505e-02,  -1.49570101e-02]],

        [[ -1.68089896e-03,  -1.03817949e-01,   3.96831494e-03],
         [ -1.12672030e-01,   4.72201056e-03,   2.40966024e-02],
         [  7.03169249e-02,   3.41970744e-02,  -1.71477806e-01]],

        ..., 
        [[ -2.48012136e-02,  -3.26559465e-02,  -6.32542055e-02],
         [  1.67948972e-01,   1.77055547e-02,   6.80335736e-02],
         [ -6.15737634e-02,   7.30299784e-02,   5.05226893e-02]],

        [[ -1.20100307e-01,  -7.01903336e-02,  -4.39945848e-02],
         [ -1.79209150e-01,   8.96479699e-02,  -4.76956703e-02],
         [ -4.73010453e-02,   8.61019412e-02,  -1.18901785e-01]],

        [[  4.96095536e-02,  -7.74896244e-02,  -1.81593053e-01],
         [  2.79060911e-03,  -6.24020591e-02,  -1.44517024e-01],
         [ -1.12667395e-01,  -2.46530894e-01,  -2.38421872e-01]]],


       [[[  1.60563507e-01,  -1.73968810e-01,  -2.01053125e-01],
         [  2.35886293e-02,  -8.28848252e-02,  -3.53829857e-02],
         [ -1.76809396e-01,   6.74115858e-02,  -9.55970108e-03]],

        [[  1.99809455e-01,   1.43848860e-01,  -8.43887327e-02],
         [  1.07460340e-02,   1.95953515e-04,   8.66157287e-02],
         [  9.29582448e-02,   1.19950474e-01,  -1.30210067e-02]],

        [[ -1.15056709e-01,   5.27982239e-02,   9.17013306e-02],
         [  2.83062370e-02,  -7.70141706e-02,   1.06731532e-01],
         [ -5.55081264e-02,  -1.60891051e-01,  -5.79989564e-02]],

        ..., 
        [[ -9.66173358e-03,  -6.50745471e-02,  -1.57065271e-01],
         [ -2.02135864e-01,  -1.00190192e-01,   1.31705841e-01],
         [ -1.31791574e-01,   5.68256278e-02,   3.32934578e-02]],

        [[ -1.37365345e-01,  -1.86586513e-02,   1.29742253e-01],
         [ -7.93983230e-02,   4.22588859e-02,  -1.14289164e-01],
         [  3.35673950e-02,  -5.05569237e-02,  -5.12379225e-02]],

        [[ -4.11067537e-02,   9.37790303e-02,  -1.41440334e-01],
         [ -1.00597240e-01,   6.71134271e-02,   7.95142220e-02],
         [  2.26329669e-01,   1.95820619e-01,  -1.78919177e-02]]],


       [[[ -1.66901880e-01,  -1.37389771e-01,  -4.21460388e-02],
         [ -2.73907600e-01,  -3.33873179e-02,  -6.14690092e-03],
         [ -7.00633488e-02,  -1.05949007e-01,   1.45991413e-01]],

        [[ -9.09163866e-02,  -7.88082645e-02,   2.03521308e-01],
         [ -5.28328372e-02,  -2.09524564e-02,   1.74047409e-02],
         [ -1.47237494e-01,  -1.08617253e-01,  -1.95280175e-01]],

        [[ -1.58898905e-01,  -9.85253625e-02,   1.57303033e-01],
         [ -1.24099246e-01,  -1.62047146e-01,  -1.68492466e-01],
         [  9.36420716e-02,  -4.02165210e-02,  -9.85448379e-02]],

        ..., 
        [[ -1.15828876e-01,  -1.98251348e-01,  -6.94550239e-02],
         [ -1.51292349e-01,   3.90740012e-02,   7.01799813e-02],
         [  6.68827568e-03,  -6.76911919e-02,  -2.16916243e-01]],

        [[  3.17444789e-02,  -1.23827729e-01,  -1.69571599e-01],
         [  5.67158587e-02,  -7.04429061e-02,  -7.23731950e-02],
         [  9.37121269e-02,  -6.90773097e-02,  -1.61884126e-01]],

        [[ -3.78038561e-02,  -7.09004633e-03,   9.99668994e-03],
         [  4.08122158e-02,  -5.74467329e-02,   4.10841146e-02],
         [  8.00927730e-02,   9.35919822e-02,   2.02746499e-01]]]])}, 



      'layer_5': {}, 

      'layer_4': {}, 

      'layer_7': 
        {'param_1': array([-0.01403269, -0.00511143, -0.0143799 , -0.01548469, -0.01081195,
       -0.00607767, -0.03055364, -0.01209249, -0.00241129, -0.02430843,
       -0.00998543, -0.01866385, -0.0083956 , -0.01685807, -0.00670986,
       -0.01458335, -0.00430918, -0.02420293,  0.00245223, -0.00937056,
       -0.01173982, -0.02670163,  0.00151347, -0.01599415, -0.02447246,
       -0.00039943, -0.00842822, -0.00077716, -0.00951293, -0.0015613 ,
       -0.00746501, -0.02525351, -0.01323929, -0.01508427, -0.01113657,
       -0.01440148, -0.01754377, -0.01731879, -0.01708557, -0.00542925,
       -0.01395009, -0.00760743, -0.01144497, -0.00933242, -0.02076341,
       -0.0217288 , -0.00314445, -0.02027085, -0.00611814, -0.02139526,
       -0.01711924, -0.01251661, -0.02034453,  0.0008057 , -0.02976141,
       -0.0249848 , -0.02320174, -0.01130118, -0.02225572, -0.01200388,
       -0.03078776, -0.03568422, -0.01808636, -0.0077536 ,  0.00998296,
       -0.00095113, -0.00929145, -0.00657026, -0.01665404, -0.0142584 ,
       -0.00347221, -0.00543206, -0.0137572 , -0.02182283, -0.01375462,
       -0.01408684, -0.02464154, -0.01948502, -0.00588874, -0.0259799 ,
       -0.02331688, -0.00662559, -0.01446753,  0.01376079, -0.02350166,
       -0.00661672, -0.01692017, -0.01824726, -0.0123169 , -0.0147391 ,
       -0.00549211, -0.02358384, -0.00867238, -0.02066613, -0.02465382,
       -0.03110442, -0.05040924, -0.00273088, -0.03338839, -0.00255274,
       -0.00615974, -0.00257839, -0.0070222 , -0.012752  , -0.03036263,
       -0.01168307, -0.01287414, -0.02467174, -0.01212596, -0.0036388 ,
       -0.01269056, -0.00854954, -0.0075944 , -0.02090857, -0.01860774,
       -0.00893693, -0.01803514, -0.00807778, -0.01378989, -0.00977505,
       -0.0175765 , -0.0158145 , -0.02329903, -0.01282387, -0.00531324,
       -0.00596119,  0.0045105 , -0.01538751]), 


       'param_0': array([[ 0.03781966,  0.02634864,  0.0179679 , ..., -0.04474619,
         0.01674999, -0.02407912],
       [ 0.01537376,  0.0338975 , -0.04322044, ...,  0.01010201,
         0.01787783, -0.01013932],
       [ 0.0320446 ,  0.03667903, -0.04847027, ..., -0.04599106,
         0.08024145,  0.02833551],
       ..., 
       [-0.01987703,  0.03208726, -0.00455457, ..., -0.02491566,
        -0.0023547 , -0.04173701],
       [-0.00917887, -0.03204042,  0.00491367, ..., -0.0287875 ,
        -0.02737122, -0.01461803],
       [-0.01626574, -0.04712392,  0.01177369, ...,  0.02837616,
        -0.02658309,  0.03715547]])}, 

        'layer_6': {}, 

        'layer_11': {}, 

        'layer_10': 
          {
            'param_1': 
              array
              (
                [-0.0617599 ,  0.11306733,  0.01020583, -0.01426947,  0.05987975,
                 -0.08382627, -0.03094082, -0.01489873,  0.04756797, -0.01997995,
                 -0.01344979, -0.11054116, -0.06989464, -0.08267836, -0.02782493,
                 -0.03541202, -0.03139543,  0.03762565,  0.02904108, -0.04194136,
                  0.01855944, -0.03367673, -0.0060045 , -0.06961153, -0.04934479,
                 -0.03590109, -0.0193172 , -0.06574029, -0.07530957, -0.02475767,
                  0.00942523, -0.03664826, -0.05485911,  0.03278945, -0.03510432,
                  0.00193042, -0.04708779,  0.0174441 ,  0.01128848,  0.17266254
                ]
              ), 
            'param_0': 
              array
              (
                [
                  [ 0.16391503, -0.32032853, -0.19732584, ..., -0.12932577, 0.14579974,  0.08892188],
                  [ 0.06585044, -0.09944051, -0.14740661, ..., -0.19699672,-0.13443408,  0.06995754],
                  [-0.22359327,  0.11381262,  0.12976777, ..., -0.22902951,-0.22018272, -0.20570349],
                   ..., 
                  [-0.03840094, -0.06582587,  0.20159479, ...,  0.06029263,0.06655556,  0.14920545],
                  [ 0.02685165, -0.26152157,  0.05159365, ..., -0.02822144,-0.23360581, -0.16912229],
                  [-0.15677925, -0.1743825 , -0.11244468, ..., -0.03843408,0.13837993,  0.09171114]
                ]
              )
            }

          }
